0.269612185
-0.842585116
0.083164913
-0.110378388
-0.580668334
-0.162129496
-0.870017927
-0.076771474
0.296620668
-0.015479383
0.028606710
0.082598704
-0.278639091
-0.010237313
-0.177894126
-0.108160719
-0.022761120
-0.039154087
0.061971820
0.104768164
-0.046181831
-0.074467767
-0.068714517
0.072891855
0.113469125
0.018058852
-0.068347325
-0.018598855
0.087250887
0.028615603
-0.028020428
0.116725057
0.043100004
-0.059471452
-0.039359765
-0.132390181
0.066379611
-0.016764467
0.109049120
0.121796788
-0.090468145
-0.044826287
0.125721599
0.004292318
0.237318644
0.099779498
-0.208655059
0.038494111
-0.093801488
-0.000569170
-0.440469174
-0.010316325
0.212346177
0.078897391
-0.022482481
-0.421579185
-0.209262222
-0.035638352
-0.007454582
-0.062676552
-0.075035549
-0.026887223
-0.044204862
-0.019100830
-0.007052146
-0.069233618
0.065658574
-0.154146900
-0.075148858
0.011935045
0.027854062
0.166886975
0.100775623
-0.051197062
0.039898162
0.047361680
0.037118542
0.123367739
-0.134999581
-0.042824057
0.048522438
0.024792255
-0.084759772
0.270180402
-0.007240556
0.094133462
-0.011600897
-0.111989450
-0.021127365
0.105174132
0.007902541
0.230171744
0.148600393
0.102457709
0.690783911
0.225734125
0.016745335
-0.046141367
-0.116651692
0.153272740
-0.061576388
-0.146053181
0.042437489
0.095662765
0.066078757
-0.072683965
0.052614813
-0.025748046
0.155733205
-0.016833399
0.211783584
-0.028989365
-0.125367708
0.039711133
-0.025087171
0.052484361
0.118188485
0.206382182
0.693790752
-0.020812580
0.105673596
-0.268530492
0.676086409
0.104072113
-0.036428583
-0.086516243
-0.320672557
0.069040485
-0.028595822
0.360886221
0.106767240
0.266614791
0.112671674
0.098757468
-0.007948309
-0.088052287
0.052309503
0.169884251
0.013099377
0.002542110
0.219398356
-0.085938624
0.025939045
-0.020726904
0.139861643
0.009327020
0.903714774
-0.217335189
-0.029895367
-0.175012334
-0.070067772
0.313407767
0.033233117
0.186444762
0.109373707
0.202248792
0.008125805
-0.061416858
-0.086195476
-0.025234361
0.106545259
0.087682868
-0.152771436
-0.051639275
0.090497398
0.106206283
-0.115412165
-0.134832902
0.087241199
0.297148057
-0.055167016
0.227391024
0.162792602
0.133037506
-0.007873322
0.235193789
0.106399873
0.170845352
-0.056894178
-0.132216836
0.030229044
0.195307514
-0.134623377
0.029023894
-0.073332770
0.000408821
-0.026383729
0.130281748
-0.396081451
0.122742808
0.113277146
-0.121006363
0.037308308
0.384042043
-0.138079298
-0.006927729
0.065210264
0.018370334
-0.157787531
-0.096175277
0.028337938
-0.313863579
-0.016173091
-0.110596128
0.036995271
-0.154881337
0.008309370
0.130319575
0.130834390
-0.021874779
-0.025170665
0.001993339
0.049519134
-0.102641037
-0.032277544
-0.117947674
0.176796494
-0.033253944
-0.091810286
-0.087964754
0.103258149
-0.274493215
-0.086592141
-0.000206467
-0.107952753
-0.095274225
-0.067481869
-0.248075203
0.073892511
0.088697110
-0.052916142
-0.182231063
-0.265689164
-0.007768498
-0.026877496
-0.106449358
-0.037845218
0.223224915
0.087809380
-0.175632652
0.107604679
0.111910864
-0.040635868
-0.008016254
0.061066853
-0.108724330
-0.041945778
0.025274795
-0.082878249
-0.009571262
0.056423108
-0.093433448
0.034676066
-0.054554391
-0.042002302
0.012590859
0.005436227
0.154723286
-0.189875382
0.188020953
-0.079072209
0.110442519
-0.072294962
0.116321233
0.013228300
0.159378625
-0.106367304
-0.040933636
-0.095288559
-0.154444607
0.108658361
0.179301655
-0.023363320
0.419147667
-0.148206016
0.051282805
0.014930726
0.018440331
-0.006294833
0.237225186
-0.156457160
0.053213291
-0.041032778
0.231636379
-0.055810144
0.059984027
-0.007888517
-0.021455078
-0.209990206
-0.019489906
-0.038110538
-0.081722060
0.025765933
-0.066209530
0.149294158
0.188186771
0.118718403
-0.167958512
-0.081989612
-0.011632506
-0.016258978
-0.132084499
-0.172874147
0.172138171
-0.024356870
0.041066806
-0.109146803
0.264746711
0.025198751
0.994848222
0.186093301
-0.195081395
0.437872131
-0.027859396
-0.054976115
0.038997917
0.022341643
0.055364459
0.094982121
-0.032937175
0.004166084
-0.091152493
-0.095393244
-0.128517456
0.308488608
-0.043781890
-0.069952653
0.136193751
0.212784651
0.256254268
-0.212475466
0.004549094
-0.027651455
-0.023434563
-0.079472344
-0.012934652
0.007205138
0.030843683
-0.082768983
-0.056537702
-0.028553909
0.092412352
0.180697065
-0.018298176
-0.113192951
0.150955391
0.038374334
0.058113360
0.147815892
0.125811087
0.040343987
0.158361055
-0.243836697
-0.075366390
0.025680438
-0.212301536
0.055734361
0.004224320
0.009783343
-0.169266955
-0.064863410
0.047273505
0.004765193
0.034333453
0.200911691
0.091861554
-0.097317581
-0.057358853
0.122837371
-0.103015151
-0.080006588
0.030750166
0.182497981
-0.183585951
0.198278848
-0.093726896
-0.032302113
0.058696596
0.298204173
0.002911183
-0.094698721
-0.451500123
0.027630257
-0.050741993
-0.042612235
-0.075496207
-0.094395435
-0.016814833
-0.065156789
-0.038625288
-0.019423844
-0.257108748
-0.176191512
0.037070929
0.140351013
-0.106913413
0.200751311
-0.104447184
0.072620027
0.148892309
-0.024589225
0.048742374
0.380620081
0.166711186
0.214383132
0.034532389
-0.065325145
0.046587028
-0.064496288
0.031926828
-0.071578058
-0.120468126
0.054812262
0.059149822
-0.118273413
-0.185863607
0.001274660
-0.008418078
-0.178675145
-0.089626171
-0.007383989
-0.068383251
-0.100083072
0.082308222
0.004904320
-0.149463165
-0.012758981
-0.043088433
-0.193999323
-0.095894238
0.187829965
-0.217227929
0.194751448
0.130855313
-0.048146707
-0.417489515
-0.131461807
-0.437894286
0.127052885
-0.078503382
0.263233079
-0.036634641
-0.131896863
-0.133755390
-0.027376404
-0.030833630
0.015405687
0.090141482
-0.021818872
-0.087328606
-0.069937925
-0.025099930
0.023293548
-0.013070878
0.002241365
-0.252897940
0.177244013
-0.005639562
0.066635267
-0.056973930
0.034929860
0.093285665
-0.052727398
0.012123188
0.045383476
0.159762218
0.056411596
-0.116143876
0.036340992
-0.055453916
-0.181517253
-0.019805153
-0.131268628
-0.061392627
-0.248203390
0.220369665
-0.024030943
0.001924299
0.035060256
-0.140604366
-0.084582915
-0.593708965
-0.037724456
-0.178931805
-0.087152317
-0.017863638
-0.018960931
-0.075091856
0.342081570
-0.134675719
-0.005432608
-0.075070924
0.168126570
0.072078289
0.032187485
-0.251291389
0.046184753
0.167963091
-0.242558653
-0.041679736
0.016611349
0.070980799
0.036040120
-0.040426199
0.040894551
-0.090100145
-0.035217986
0.098627722
-0.018923331
0.098656609
-0.041487940
-0.100382221
0.146142528
-0.220967035
0.078687522
-0.047542295
-0.199522031
-0.181037789
-0.048677761
0.046078445
-0.204932454
0.078698466
0.109676879
0.145204724
0.137713373
0.090388310
-0.041028802
-0.082303054
0.195601732
-0.069621404
-0.149234571
-0.048564241
-0.096972013
0.133315306
-0.088832746
0.008438860
0.086721289
0.090927732
-0.035688749
0.095223093
-0.155456835
-0.103372309
-0.136744729
-0.113970045
0.028682681
0.021196280
0.110353229
0.095124240
-0.082372699
-0.128838191
0.154732188
-0.098069784
-0.005314572
-0.222441598
0.091176525
-0.009912289
0.033800773
0.201684520
-0.227606733
0.134017008
-0.120948609
-0.074342990
-0.004167069
0.028464943
-0.045496505
0.037676744
-0.206199432
0.320919418
0.171536339
-0.157210342
-0.120647863
0.177027574
-0.081604749
-0.449365740
0.105739706
0.082214390
0.024208957
-0.191932725
0.134349072
-0.130801669
-0.029160916
-0.075798594
0.033588612
-0.038005437
-0.008473225
0.114447744
0.045065862
0.035433347
0.144487480
0.215960991
-0.073891959
-0.029744219
0.048491412
0.167085093
-0.023657157
0.040825242
0.131434786
0.179267809
-0.155774680
-0.135769858
-0.073236248
0.505588629
0.184152012
0.409343811
0.060736315
-0.058790134
0.047231583
0.088917151
-0.153297430
0.360368293
-0.097771255
-0.113554274
0.213838547
-0.277018534
-0.146286668
-0.113536738
-0.055249615
-0.033907300
0.108552816
-0.051817872
0.087409242
-0.123704385
0.177257275
0.180025954
0.041990776
0.038982759
-0.021331979
0.076900335
-0.206086588
-0.057090847
-0.043797338
0.348546193
0.034190458
-0.233727592
0.059733829
0.021733031
0.057265840
0.080362570
-0.122245560
0.066289661
0.148086488
-0.183653889
-0.164653009
0.082076115
-0.082545149
-0.093253869
-0.162815723
-0.123444426
-0.040063147
0.319656104
0.058284201
-0.104637301
0.183698521
-0.207825113
0.108024093
0.170342339
0.174735740
0.173787109
0.097685900
0.093090034
-0.030103321
0.285329553
-0.097982160
-0.148284703
0.036822973
0.019737782
-0.052036805
0.080217656
-0.132192466
-0.126588517
-0.005272679
-0.154232203
-0.071073998
-0.428531340
0.135667765
-0.169437483
-0.534565145
0.038215636
-0.042893497
0.209793691
-0.098764930
0.031912838
-0.126820193
0.119585176
0.093953825
-0.015839337
0.004116078
-0.207312412
0.015591795
0.131675993
0.144234670
-0.165108693
0.045218105
0.180829991
0.247417126
-0.149325783
-0.014794983
-0.070028325
0.089727557
-0.195998418
-0.065941367
-0.128512469
-0.104054915
0.096690265
-0.039850457
-0.158982159
0.074859272
-0.275325839
-0.056949462
-0.007894695
0.013561712
-0.116677271
-0.096834440
-0.063972861
0.038330655
-0.046708587
0.025473859
0.070424129
0.148256285
0.119901635
0.229899628
0.205973402
-0.384598750
-0.056523128
0.013609217
0.038617419
0.247499914
-0.094308521
-0.001128166
0.132307089
-0.411356296
-0.084179694
0.107505404
-0.041221605
0.063259003
0.280563525
0.035954815
0.062377604
-0.186017018
-0.082092038
-0.013102884
-0.117952658
-0.179092102
-0.115234054
0.054497097
-0.291667816
0.238130486
0.096541663
-0.069600430
0.218662348
0.046428044
0.112631820
-0.031693267
0.175545729
0.013807383
-0.141708433
0.062415368
-0.204208471
0.166115915
-0.110905578
0.029643623
-0.274682848
0.170490396
0.226466188
-0.107455636
-0.161312130
-0.282558323
-0.002576001
0.062315555
0.172616957
-0.161118048
-0.048668213
-0.108158674
-0.061756389
0.182634524
0.057704870
-0.206881634
0.105223921
-0.050052118
-0.189893938
-0.102060451
-0.050644195
0.042850874
0.224918917
0.049231431
-0.078102912
-0.054455188
-0.160494130
-0.084338373
-0.080962869
-0.081253090
0.134553561
-0.144278260
-0.178058275
0.208422187
-0.039835277
0.103871804
0.031630734
0.035474973
0.051467428
0.061511584
-0.061648651
0.047968386
0.152934372
-0.228438651
0.118792178
0.240737307
-0.011626791
-0.097885073
-0.149241330
-0.225817412
-0.074255972
0.269071722
0.122841850
-0.060523064
0.211473734
0.030062739
0.216438438
0.075075099
0.082778037
-0.135784886
0.083905785
-0.248990875
0.022754360
-0.192004946
0.195633626
0.225056221
-0.364355518
0.098152396
0.001128355
-0.059913008
0.076769230
-0.025023547
-0.045446906
0.029999160
-0.064097818
0.067936783
0.224438138
0.144393225
0.045959251
-0.214020639
-0.061984959
0.059117489
0.115762750
-0.008891064
-0.093093380
0.062891002
0.100118974
0.068943890
-0.125080116
0.088223404
0.193558136
-0.043989305
0.021746551
-0.080708297
0.022124464
0.057029482
-0.110917845
0.096662757
0.064913531
-0.113455161
-0.157190768
0.017579814
0.165910070
-0.049393411
0.020740005
-0.043817514
0.063912620
-0.191812224
-0.091334220
0.022467416
0.119266309
-0.047565264
0.332261279
0.112037863
0.109504617
-0.093489044
-0.033208916
0.032273395
0.108879860
0.000386292
0.024618481
-0.276490081
-0.078492564
-0.090400957
-0.076889602
-0.050123875
-0.087585022
0.020440611
-0.018185068
-0.030617663
0.126948298
-0.006596515
0.099548314
0.096459545
-0.125595784
0.110057065
-0.088305080
0.016237363
-0.023540154
0.095140064
0.135257423
-0.175706633
-0.163971513
-0.102885691
-0.071847756
0.294838181
-0.098813423
0.004694723
-0.126182972
0.135624301
-0.089044866
-0.016199259
0.066927843
-0.085409638
-0.079626849
0.032177307
0.061200418
0.125194610
-0.003132159
-0.086363312
-0.301874513
-0.080612808
0.021010639
-0.059398679
-0.128637921
-0.081936540
-0.184073186
-0.186657299
-0.110982712
-0.067401559
0.133648266
-0.056731815
-0.080680935
0.036024650
-0.009586701
0.012469654
0.137467096
-0.193939665
-0.097450973
-0.294591328
-0.173114003
-0.027311673
-0.006714678
0.018640783
0.031828871
-0.067126951
-0.189627695
-0.197747930
0.370683174
0.024186796
-0.065770566
0.084095503
0.088705676
-0.153965551
0.254293627
0.005297662
-0.136368829
-0.096966504
-0.102560194
0.065287742
-0.028154047
-0.092313374
0.032107736
0.145684100
-0.130661570
0.172239454
-0.093440132
-0.108300691
0.021188573
-0.058880463
0.182155019
0.076189993
0.130361535
0.252388122
0.000211855
-0.243141797
-0.059813171
-0.186762794
-0.334912984
0.064777671
-0.149572411
-0.034032590
0.001203901
-0.014973294
0.077740218
-0.226998068
-0.007831925
0.002991437
-0.140147544
0.021639748
0.023378300
0.080682342
0.167769196
-0.044202610
-0.129832824
-0.108344957
-0.090901062
0.083041014
0.110205438
-0.068124027
0.030290237
0.165121478
-0.165957496
-0.190793114
0.113372104
0.127852708
0.045879506
0.063335920
0.083124738
-0.136999494
0.125567020
0.111968616
0.031422275
-0.039686209
-0.102687447
-0.362253589
-0.083299511
0.165431408
-0.306148917
-0.075780757
0.374983872
-0.039204177
0.207104609
0.126985159
-0.163099842
0.125479846
-0.068921015
-0.023956420
0.139967642
0.093118569
-0.109484577
0.101475316
0.005204136
-0.307232319
-0.079161682
-0.112834866
0.052108832
-0.030316138
0.025238659
-0.034529582
0.003211848
0.035843220
-0.021869975
-0.001019239
0.207247469
-0.022207554
-0.162438428
-0.020248866
0.118845563
0.416613946
0.143710283
-0.038028764
0.063517549
-0.234110544
-0.094586530
-0.051032082
-0.059073655
-0.163878465
0.190805843
0.045346567
-0.003990465
-0.139871683
-0.042410526
-0.027982504
0.446119057
-0.100526556
-0.055916861
0.177759239
-0.200718012
-0.032104143
-0.027820304
-0.117347028
-0.005576404
0.067846560
-0.129995018
-0.011474958
-0.071007426
-0.001741832
-0.071350491
0.031472132
0.008873831
-0.173865041
0.071218189
-0.076492701
-0.014215489
0.000132942
-0.137719012
-0.088910067
-0.004450809
-0.120615810
-0.092625193
0.418630259
0.000627266
0.033241970
0.192699893
0.124129494
0.044101755
0.060140542
0.302916767
0.078749578
0.195354250
0.001824973
-0.071668957
0.016675654
0.092139015
-0.113756778
0.006729247
0.092224669
0.081728067
-0.077280736
-0.018791079
0.055009253
-0.056657185
-0.176228965
-0.143160093
0.117787058
-0.053741437
-0.094497238
0.155903690
0.007922713
0.635061826
0.073264686
0.118096907
0.152647177
0.076486015
0.005770078
-0.143913737
-0.130755152
-0.071291846
0.000745821
0.343900598
-0.313343374
-0.104533950
0.034401865
-0.105998735
-0.101109580
-0.103477532
-0.056863789
-0.078996617
-0.008836237
0.204995857
-0.143225699
-0.197984559
-0.122777096
0.150233925
0.041688216
-0.000546024
-0.035207807
-0.095483960
-0.008459360
0.136470522
0.074388274
0.056460309
0.015850384
0.183474139
-0.230158562
-0.075041797
0.000351635
-0.106154865
0.055351498
0.049884294
-0.182215162
-0.026565609
0.167894740
-0.193537129
-0.072066815
-0.334463306
-0.138281187
-0.207518330
0.079684716
-0.045321530
-0.148000941
-0.030480463
0.232620692
0.123684852
-0.198926895
-0.006295429
0.201991863
-0.030186707
-0.013985832
-0.137764916
0.042845658
0.005093566
-0.010160812
0.121618603
0.064527776
-0.136754983
0.101576784
0.033014556
-0.169606720
-0.209763262
-0.093225182
0.037065457
0.085987892
-0.062683841
-0.045090141
0.038519736
-0.052663653
-0.020199566
-0.172933834
-0.016762975
-0.020434346
0.129438772
0.205765743
-0.021505523
-0.071748156
0.050535476
-0.017985681
0.106157657
0.000844489
0.034874398
-0.109696203
0.049860567
-0.024497695
-0.214593848
0.377389243
0.011385750
-0.100305758
0.046701265
0.008224063
-0.135704744
-0.129947414
-0.018523249
-0.041269827
0.353539373
-0.057736444
0.123211912
0.017868729
-0.104943468
-0.128402305
0.115722124
0.146073684
-0.078215967
0.414573833
0.260234658
-0.070119770
-0.005637202
-0.187513180
0.010680434
0.010806999
-0.027722946
-0.394450202
0.246644014
0.262589128
-0.095222964
0.118087078
-0.011402032
-0.037298921
-0.008487413
0.058833207
0.033438789
-0.003756669
0.082686811
-0.113961058
0.274258622
0.049268691
0.071265715
0.147302643
-0.042622792
0.080509714
-0.035175008
-0.121973415
-0.049575435
0.065374779
-0.052092958
-0.063095898
-0.551146481
-0.084815337
0.076228160
0.151837461
0.021097617
0.110749512
0.058658312
0.056248514
-0.075343185
0.050256555
-0.016230372
-0.010053047
-0.040240316
-0.101682512
-0.038222553
-0.078336487
0.105259931
-0.150817188
-0.090542907
-0.042035491
0.022137729
0.028189918
0.175739531
0.156228220
0.198386042
-0.089130002
0.214344537
0.018738821
0.046734631
-0.032490674
-0.049789093
0.047967674
-0.003123044
0.122251259
0.100177058
-0.119047579
-0.130962438
-0.017242679
0.060656282
-0.120666590
0.021270150
-0.119282070
-0.048374557
0.090594420
-0.038473298
-0.017923160
-0.102166807
0.069434781
-0.163716337
-0.073184384
0.027369847
-0.009476712
-0.113576485
0.070869332
0.056813561
0.130086333
0.043046552
-0.061575421
0.190145456
0.051251888
-0.081010448
-0.060991042
0.025616633
-0.006070951
0.015403965
-0.145781273
0.099367143
0.072446410
-0.032103414
-0.063970140
0.080631250
0.084360637
-0.014467989
0.037649621
-0.057679209
-0.025986416
0.007104860
0.289280995
0.067103726
0.074053144
-0.079655988
0.024508868
0.170641021
0.040969510
-0.067730184
-0.121929736
0.147367156
-0.051251362
0.088235035
-0.036566459
-0.145112346
0.002079853
0.015881959
-0.153271266
-0.021036546
-0.011967141
0.056835123
0.028411632
-0.118839838
0.092057265
-0.002680163
-0.021094080
0.099765500
-0.128414659
-0.164993210
0.124685316
0.022815087
0.096123150
0.003108858
-0.074748496
0.098683785
0.077193298
0.034553051
-0.033717265
0.086959541
-0.116927587
0.129462220
0.037892612
0.278661474
0.055154482
-0.082082683
-0.040481411
-0.081711758
-0.083210945
-0.011523044
0.229029392
-0.035031386
-0.150079382
-0.220271470
0.065232315
0.005794231
0.131203114
0.009616898
-0.177998398
0.046953359
-0.050472120
0.051674957
0.180757729
0.080080306
-0.171629654
-0.024146728
0.099176352
0.060575492
-0.007644722
0.030912191
0.006515764
0.074614659
-0.032283857
-0.015088321
0.095576993
0.009252306
-0.050468665
0.000998239
-0.119774323
-0.022051106
0.030015918
0.196608916
0.011102323
-0.000317061
0.026790081
0.036437962
-0.039746909
0.091684492
-0.223310764
0.071690975
-0.034654228
0.162017644
-0.047887058
0.130063464
-0.065604396
-0.055145718
-0.096950386
-0.045259801
-0.128744508
0.009168331
0.118305977
0.509696105
0.051042511
-0.110667601
-0.069413567
0.129334508
-0.073968592
-0.018682261
0.223570895
-0.100121123
-0.017874060
0.067045600
-0.029479959
-0.053055584
0.110426191
-0.093776402
-0.147838682
-0.041495799
-0.003200546
0.100281238
0.068729603
0.099197731
-0.116570864
0.031340293
-0.085154396
-0.133951420
-0.042949228
-0.081784986
-0.021791339
-0.104980906
0.110375075
-0.014399376
0.008362628
0.074335879
-0.034395109
-0.110501338
-0.086155762
-0.040494529
-0.020101161
-0.015472378
0.007752482
0.060009425
0.204415394
0.103027116
0.159185052
-0.033882280
0.006526957
0.109239600
0.127756809
-0.045766965
0.013030714
0.054640138
0.127112056
-0.071816032
-0.110585948
0.142684668
-0.030889427
-0.069277500
-0.100436517
0.024559023
0.047024351
-0.039675198
0.162847152
0.042342704
0.144370514
-0.117176575
-0.021692467
0.029709380
-0.039799382
0.068854438
0.024244747
-0.045589238
0.036797432
-0.021098299
-0.194713364
0.058713165
0.033680993
-0.105346351
-0.025797224
-0.025642892
0.074229864
0.057554761
0.172476950
0.058272063
-0.049460370
-0.059557190
-0.013147539
0.035832659
0.068967669
0.073856195
0.003244559
0.012075027
-0.091445117
-0.041130002
0.094859559
-0.033957715
0.108381291
-0.125766783
-0.048523171
0.055988104
0.070859886
-0.040536084
-0.012406125
-0.034222794
-0.064736660
0.010484345
-0.016514867
0.110497480
0.040614371
-0.032986296
-0.155052155
0.030298192
-0.077172685
0.025278143
-0.085634524
-0.201819112
0.017086983
-0.043917671
0.074062796
-0.135881661
-0.089020483
-0.083396784
0.182271189
0.170824228
-0.042507771
0.074171370
0.048959166
0.011697549
0.039948370
-0.079678390
-0.090444669
-0.018248523
-0.061425552
-0.028149576
0.035122720
-0.098729100
0.072241975
0.057324806
0.069961383
-0.037641232
0.010956176
-0.065863481
0.142323951
0.196465615
0.106990204
-0.047773498
0.034809540
-0.013830222
0.088365272
0.073829273
0.018993735
0.079762496
0.071981845
-0.034588949
0.079131913
0.027563434
0.093902016
-0.026511179
0.006628683
0.166449512
0.054452432
0.036602384
-0.078708163
-0.070039318
-0.027951217
0.145698289
-0.082226479
0.191889063
-0.013018031
0.033707946
0.040879652
-0.027940811
0.211836449
0.044156710
0.084498436
-0.028250194
-0.010665875
-0.072142395
-0.020878908
-0.065176352
-0.143316162
-0.065410721
-0.006507594
-0.001380346
0.075993355
-0.074254249
0.042358057
-0.056117018
-0.017211834
-0.061581640
0.246396704
-0.007486161
0.001410977
-0.068657872
-0.111342510
-0.033974723
0.057634116
0.123988917
-0.130915069
-0.068657872
-0.032388162
0.147879260
-0.062572443
-0.089778131
-0.032123692
0.025646949
0.117962439
0.009994172
-0.047584532
0.196236046
-0.026367949
-0.110782778
0.049864029
-0.079375532
0.020270527
-0.065024775
0.052890632
-0.128797095
0.085620155
0.082370995
-0.018931148
-0.001980946
0.057562326
-0.066206822
0.171862022
-0.204548744
-0.022948112
0.063127978
-0.112428258
-0.148328065
0.156966925
0.148677213
-0.099941660
0.058602316
0.071565167
0.087383126
0.070529664
-0.162852846
-0.040405814
0.033874932
-0.001172799
0.016446264
-0.031555344
-0.014053985
-0.067406888
0.043507725
0.108521289
-0.002778030
-0.024640162
0.029281186
-0.041623460
-0.021952584
-0.063391749
0.017824211
-0.029328464
0.046418260
-0.077542728
-0.066074834
0.080889096
0.010328332
-0.047738649
-0.096605863
-0.164275611
-0.079119114
0.032513124
0.174832783
0.013342457
0.015703646
-0.006085775
0.068248649
0.062705009
-0.116575064
-0.064117886
-0.093333201
0.000216541
-0.032612644
0.097192968
0.030866945
-0.101635023
-0.085964129
0.310224972
0.007597573
-0.070315503
-0.023782556
0.050974399
0.101417242
0.013602980
0.138188007
0.233865633
-0.087175751
-0.043444345
-0.059504531
0.031727796
-0.053384250
0.028959609
0.035241599
-0.002260293
0.022631243
-0.004692307
0.078200600
-0.021461335
0.036471098
0.042576325
-0.024523678
-0.034951211
0.047824524
0.049940416
-0.010063533
0.048498816
-0.043319572
-0.028777910
0.029440039
-0.037386973
0.008071241
-0.008910131
-0.007093576
-0.056275163
0.031233910
-0.001625895
-0.006007999
0.006861900
0.164904970
0.076975642
-0.027510886
0.009293395
-0.031572496
0.205748571
0.014355260
0.101575897
0.012299067
0.010256633
-0.029624746
-0.041031179
-0.040335152
-0.051946158
0.076077612
0.019336845
0.093895630
-0.019070721
-0.010966453
0.032679044
0.041553934
0.045462884
0.012522265
-0.023015465
0.061705451
-0.025222567
-0.007667006
0.047217830
0.028338150
0.106215777
0.132082479
0.005534584
-0.004739704
-0.021144667
0.001803210
0.024246419
-0.125733782
0.006972455
0.000083480
0.136521775
0.055764623
0.071074895
0.073824874
0.125500994
0.018297420
-0.082161623
-0.008005711
-0.018536642
-0.018433939
0.087737363
0.075684794
-0.075339425
-0.068418026
-0.115049839
-0.143521003
-0.084857805
-0.063951496
-0.085034173
0.070718961
0.033770524
-0.058849753
0.014248129
-0.020828966
0.220566824
-0.108275798
-0.031699385
-0.013754688
-0.105527479
-0.028307662
-0.062280794
0.052565518
-0.038398573
0.008270912
-0.049870500
-0.039582151
0.046818921
0.131458734
0.005660067
-0.036378428
0.088040951
-0.064289500
0.043062406
-0.043092846
-0.035818782
-0.019754619
-0.069142608
-0.078771335
0.114625630
-0.009854064
0.078163628
-0.079545922
-0.010676472
0.070648680
0.064544975
0.070065773
0.143453130
0.102817882
0.000291406
-0.039831569
0.106387821
0.040815340
-0.054496867
0.065384106
0.011530947
-0.090166551
-0.062757808
-0.047612390
0.152428634
0.049490369
-0.008654594
0.027823132
0.009984390
-0.059442929
0.012488543
0.099289734
-0.138166054
0.149435713
-0.008030077
0.114691105
0.341699568
0.021396326
0.269686049
0.011300759
-0.030530748
-0.018410630
0.077936915
-0.017230123
-0.070442659
0.057450751
-0.127757422
-0.143057625
-0.030759689
0.118183330
-0.010188923
0.002822987
-0.097003870
-0.077852654
0.160778682
-0.005773596
-0.083002419
0.180642632
-0.106265434
-0.045232761
0.038367730
0.039958413
-0.033089841
-0.032018297
0.002636982
-0.022600953
0.374878847
-0.077928797
0.043127430
0.035802296
0.017064306
-0.014636617
-0.065516350
0.115424220
-0.028317675
-0.003699820
0.037437359
-0.041634249
0.077794292
-0.096298773
-0.109094462
-0.042732505
0.036460188
-0.080975827
-0.029414239
0.043845813
-0.087369475
-0.030108151
0.059154142
-0.046634723
0.003259014
-0.001942457
-0.257518043
-0.106236141
0.046758631
0.033809152
-0.012403886
0.151917233
0.081974950
0.002271364
-0.057355320
-0.038869736
0.074930244
-0.052466649
0.025738698
0.083672273
0.075765107
-0.005727949
-0.042858572
-0.110363611
0.021331856
0.024493830
0.005782141
0.010770006
-0.077397748
0.022537433
0.046204247
0.020028589
-0.084677274
-0.080885432
0.093670990
-0.052950555
0.123046761
-0.039135076
-0.033948683
0.084053692
-0.112324134
0.028790325
-0.067150557
-0.048422242
0.028095416
0.078116814
-0.053810764
-0.043737732
-0.045954822
-0.036462093
0.060241355
-0.003543227
0.028943985
0.094282925
0.158558501
-0.004619869
0.004903428
-0.081843219
-0.019845538
-0.019933537
-0.041259548
-0.013231405
0.043624046
0.123953556
0.009703027
-0.023467744
-0.006270017
0.041978124
-0.034092097
0.006644644
-0.017862964
0.039769112
0.012084705
0.033049235
0.023833525
-0.055884939
0.024664274
0.022257057
-0.061375321
0.096496576
-0.262567253
0.123957862
0.015763932
-0.025705977
0.060020044
-0.018620905
-0.045183168
-0.218568328
0.038664507
-0.058734274
-0.015506240
-0.059365938
-0.027410918
-0.001090182
0.026964580
-0.023209762
-0.001579240
0.026335302
0.654747885
-0.024643848
-0.100964058
0.006459582
0.147085017
-0.010065193
-0.137599833
-0.052624414
-0.023641602
0.066401210
-0.124144417
0.203376078
0.030155996
-0.033396353
-0.035739937
0.048649464
0.056152907
0.188558683
0.073651850
-0.058249987
-0.047182918
0.188558683
-0.056186470
-0.011104543
0.018165310
-0.028442974
0.025928423
-0.040686319
-0.084090881
-0.010523344
0.005339578
-0.013185397
0.381881906
0.000007464
-0.043951430
-0.026784807
0.000519789
-0.058399545
0.109842123
-0.063878315
-0.057502395
-0.040050730
-0.003194034
-0.006477893
-0.041267664
-0.058265837
0.023287734
0.239020418
-0.008573528
0.066235590
-0.082684794
-0.018098249
-0.045631755
-0.012183428
0.045708519
0.165908837
-0.080522088
0.094684881
-0.064826979
0.008280760
-0.002662411
-0.041686423
0.063910472
-0.123438672
0.064294533
-0.033050703
0.056639789
-0.022736576
0.110409395
-0.031318706
0.009187827
0.046417350
0.078344758
0.073408895
0.042538044
-0.001082433
0.028201863
-0.040446159
-0.000612603
-0.004553671
-0.012411886
-0.119537808
-0.000248966
0.046945234
-0.056854545
-0.227112365
0.067072039
0.028061147
-0.089099979
-0.020955105
0.110638359
-0.057800579
0.020974112
0.081194573
0.054301653
-0.014198882
0.107572610
0.168962340
0.077581350
-0.036810004
0.015607723
-0.028138715
0.049099684
0.020935993
-0.036018959
-0.048334391
-0.022773798
0.114225377
0.006127635
0.036715252
-0.005122863
-0.055204879
-0.045573604
0.035074111
0.063263051
-0.002349268
0.014315376
0.016704609
-0.005612735
0.000507274
-0.008618520
0.099514929
0.127498930
-0.017009408
0.075309374
0.097335853
0.003544151
-0.045653741
0.032966300
-0.058219509
-0.021460220
-0.098426652
-0.103250552
-0.013822719
0.284384070
0.026245506
-0.127144293
-0.032894577
-0.088837280
0.062940001
-0.017883280
-0.012091434
-0.016240464
0.015453540
0.026276475
0.387754811
0.022210948
-0.025226388
-0.024030383
0.071909122
-0.007377282
-0.024997866
0.011833986
-0.001277731
-0.037304836
0.011327361
0.029845867
0.022658513
0.112071727
0.015089850
0.047313251
-0.033634499
-0.085239658
0.047119683
0.033894646
-0.005629601
-0.014286141
-0.005674591
-0.032193570
0.018552594
0.003070659
0.210027975
0.037802755
0.088261251
-0.101462166
-0.010231222
0.088261251
0.047045609
-0.005835367
0.062358542
0.021744114
-0.001406868
0.005200207
0.072353425
0.035767989
0.122788006
-0.011473756
0.003251673
-0.008290155
0.029151839
-0.019457606
-0.030937344
-0.025070766
-0.015497267
0.005297845
-0.056207996
-0.084233473
-0.002294248
-0.020314899
-0.013621456
-0.102316926
0.009122561
-0.052454319
0.019624181
-0.120134975
0.048533334
0.079448636
0.012039840
0.045807337
0.008604431
0.009957818
0.012461375
-0.023725456
-0.053775999
0.007490322
0.037610204
0.186656828
0.020548320
0.011196929
-0.041812306
0.053935511
0.027112227
0.050635790
0.002746071
-0.020568361
0.008082407
-0.177035008
0.023303126
-0.099082125
0.053806931
-0.009985980
0.170379967
0.031660168
0.042817952
-0.033855336
-0.011603152
0.002191475
-0.048671213
-0.027238099
0.074755787
0.006647879
0.021436336
0.025924060
-0.078082533
-0.069556313
0.014744764
-0.065457280
-0.051252063
-0.022028769
-0.017389270
-0.007270023
0.094181681
-0.068686563
0.004981213
-0.013580975
-0.000517133
0.030875394
-0.011456120
0.008382702
0.057388965
-0.023161047
-0.045793194
0.000841216
-0.121988089
-0.058466788
-0.040592747
-0.031920022
0.001981639
0.002016611
0.024706512
-0.051719844
-0.029380721
-0.000827680
-0.033266857
-0.033049535
-0.026704656
0.030471352
0.100197961
0.111383002
0.142293136
0.011107735
-0.066279100
0.015405105
-0.002636845
0.014961522
0.051637035
0.043045380
0.026532627
-0.032043857
-0.001619674
-0.017529034
0.067500208
0.030075114
-0.003239324
-0.058410418
0.012959510
-0.012583758
-0.087830114
0.023034455
-0.062237508
0.003998519
0.000005185
-0.020951953
-0.023350387
-0.042249692
0.032448545
-0.090226627
0.005170829
0.020537262
-0.007687544
-0.016348135
-0.005916944
0.025951019
0.008756540
-0.025471873
0.048867028
0.012178808
0.034257728
0.051210228
-0.008439504
-0.040496800
0.259548784
0.001737166
0.015409219
-0.027912614
0.055958495
0.047409409
-0.000219422
-0.004928408
-0.053389542
0.020348516
0.049093767
-0.015616318
0.096643351
0.030175618
-0.046564555
-0.031685563
-0.005635327
0.037794480
0.029098326
0.061575944
0.048800884
-0.045447403
0.060114033
0.095672972
-0.049192547
0.019290799
-0.002679121
0.017046733
-0.062547808
-0.026621018
0.018679327
0.005920153
0.614540595
0.055464495
-0.059438639
-0.055157532
-0.092570944
0.075371896
0.066783771
-0.000057754
0.056818789
0.043909092
-0.039822018
0.002688759
-0.030926945
-0.022618619
-0.001534631
-0.073859417
-0.040268534
0.075867417
0.051095461
0.031096425
-0.030166793
-0.050805564
-0.031034832
-0.055643081
0.043461997
0.006202042
0.057234753
0.020905000
-0.141373785
0.169831291
-0.111992181
0.044825004
-0.006728250
0.016900266
-0.027330545
0.017555537
-0.023855804
0.041100850
-0.052953040
-0.026766902
0.009155712
0.087076483
0.093232091
-0.066756522
-0.035454260
0.011895483
0.032448590
0.013659730
0.038075968
0.005508030
0.014028953
-0.019869986
-0.008134815
-0.021351901
-0.014404197
-0.002888368
-0.000593358
-0.008438277
0.036723562
0.018719660
0.037805683
-0.048048797
0.039804932
0.009020725
-0.007694386
0.026137585
0.029210867
0.047935844
-0.015559651
0.065820810
-0.008127241
0.018536354
0.022168224
0.019732111
-0.052619475
-0.059395961
0.005479297
0.023163995
-0.076063441
-0.025314160
-0.062729275
-0.060909599
0.052022624
0.014700264
0.099538176
0.016188985
-0.038768577
0.022086707
0.041128457
0.024320144
-0.024324563
-0.068688499
-0.004215300
-0.014728848
-0.020667081
-0.004417836
0.008963116
-0.041874917
-0.020718272
-0.042397485
0.108792795
-0.027778448
-0.040295030
0.015907191
0.020349820
-0.040295030
0.023137775
-0.032214620
0.073311855
-0.124787287
0.055171863
-0.002560945
-0.087063395
0.003246981
-0.052558980
-0.013618918
0.064738113
-0.055104591
0.006391995
0.036872934
0.119717565
-0.005858829
0.071083140
0.017550644
-0.000655538
-0.005408151
-0.025554054
0.024780868
0.032991800
-0.058810587
0.057371832
0.012556565
0.012323040
0.002895779
0.004902865
-0.009921981
-0.043702447
0.101665858
0.011900244
-0.023435472
0.005361669
-0.058046792
0.051850437
-0.024969289
-0.089634180
-0.057970725
0.006545669
0.017887936
-0.058649435
0.025921378
-0.018691356
0.011384413
0.021277266
0.031668711
0.056492536
-0.029049660
0.013262111
-0.023775649
0.025698389
0.039936086
0.009389393
-0.008763698
0.015968730
-0.034473399
0.038323547
0.101520566
0.008593608
0.120236534
0.003982201
-0.012930609
0.001078930
-0.022081761
-0.009654717
0.109342777
-0.013517552
0.013954265
0.064223635
0.047976768
0.005363893
0.006653933
0.065136479
0.168955364
0.003868334
0.011781323
-0.048942668
0.072072131
0.135462511
-0.046350511
-0.006109231
-0.008114727
-0.001350522
0.060823270
-0.013773693
0.015397152
0.260869523
-0.005969208
0.037803824
0.040562695
0.012089880
-0.004979836
-0.111061509
0.033603589
-0.022110600
0.026859630
-0.009713481
-0.046721955
0.071942738
-0.001392825
-0.032992155
-0.091000430
-0.042917763
0.028814335
-0.077456532
0.018261789
0.029327939
-0.001469178
-0.001667786
-0.066471737
-0.013452062
0.030136265
-0.052460151
0.100587657
0.097580211
-0.041725962
0.028410136
0.059842067
0.032731386
-0.001268610
0.012176536
-0.015540706
-0.052405209
-0.021202810
-0.001524352
0.014808824
0.002963617
0.082606627
-0.019154115
0.046334802
-0.010709386
-0.013571832
0.042742734
-0.053825869
0.056335347
-0.063198862
0.117372562
-0.020814900
-0.041685513
0.022280441
-0.059729306
0.017187938
-0.058120655
0.042801765
0.020077009
-0.014720386
-0.006160541
-0.023780464
-0.000564701
0.045376052
0.117736285
-0.018034320
-0.015790383
-0.002297777
0.000550875
0.038603048
-0.077965264
0.011790678
0.062655119
-0.011421435
-0.012833338
0.021511240
-0.020553047
-0.020218786
0.027760594
0.056067724
0.026082512
0.021405569
-0.007750954
0.015364559
-0.005854331
-0.041761942
-0.026976958
0.125957647
-0.081912969
0.079505255
0.109122816
-0.027078774
-0.032863792
0.027983888
0.044292255
0.031264081
-0.012393224
0.003923311
-0.023591767
0.013604919
-0.029465562
0.034274302
0.055999615
0.047779961
0.045847661
-0.013413367
0.036373251
0.020864644
0.052569019
-0.072934446
0.154525698
-0.002191065
0.016547402
0.067137353
-0.009496455
0.174237405
0.101963479
0.014959274
-0.020832205
-0.012646645
-0.024458516
0.030018038
0.092396448
-0.051831199
-0.058112898
-0.068995876
-0.022824213
0.104616576
0.010112825
0.154525698
0.074604730
-0.022101319
-0.006483332
-0.001295714
0.091245356
0.000315108
-0.032174738
-0.066570137
-0.015842037
-0.037708197
-0.053168915
0.022995811
0.004193504
0.024695128
-0.042693994
0.008786449
0.056736237
0.065825983
0.022380905
-0.043239937
-0.007503864
-0.014235117
-0.043222228
-0.002404803
-0.003872667
-0.022006591
0.087461131
-0.010736417
0.022509013
-0.016934243
-0.023090033
-0.029583071
0.027546176
0.068408742
0.055997372
-0.024173150
-0.022316584
0.005149554
0.020633661
0.014343794
-0.003089775
0.067092990
-0.004812247
0.037653192
-0.042889858
-0.012427742
0.065552289
0.049627817
-0.067871076
0.003890592
-0.055741113
-0.024607753
-0.014353236
0.011560239
0.002621513
-0.077928286
0.016155826
-0.015564383
0.040373374
0.021358841
0.018834819
-0.025575083
-0.002265360
0.013174667
0.058171337
0.025613664
-0.013188916
-0.020054043
0.011354817
-0.020274790
-0.005213378
0.154145430
0.005485271
0.022572274
-0.011416850
0.025747844
0.049064149
-0.043367372
-0.007897942
0.001394430
0.001119307
0.183980146
0.071011279
-0.004476964
0.057946407
0.026197359
-0.001960768
-0.004608014
0.004701692
-0.053196376
-0.001478239
0.056306650
-0.000727149
-0.006315079
-0.015803102
0.007257557
0.011580738
-0.048434899
-0.034128129
0.029933056
0.033313001
-0.026848920
-0.043833639
0.002625375
0.014349501
-0.021977767
0.023836510
-0.047417034
0.067361623
0.000010843
-0.025298163
0.007850831
-0.000403745
0.017690898
-0.016405326
-0.026614907
-0.009910065
-0.018083365
0.022847035
0.004633303
-0.004390017
-0.012471593
0.026074243
-0.028825431
-0.010604375
-0.006380536
-0.042540731
0.010033826
0.057232293
0.019292312
0.071261357
-0.067357460
-0.035094291
0.011542063
-0.009062505
0.039528947
-0.015170502
-0.014371106
-0.045084551
-0.045509875
0.007095544
0.022350960
-0.001261155
-0.004879866
0.023512613
0.021840445
0.010958647
-0.001471929
0.021818383
0.009454392
0.004481379
-0.005726360
-0.028989584
0.016618940
-0.019329290
0.006436400
0.001424553
-0.023017093
0.000805974
-0.003085046
-0.009175113
0.007072134
0.061948872
0.003867459
0.007137156
0.020025802
0.012991329
-0.070036039
-0.007024817
0.044822398
-0.027424255
-0.067077771
0.044091539
-0.076080746
0.044533426
-0.053674667
-0.006397939
0.001665191
0.095741412
0.045519744
0.125540830
-0.008231560
-0.018288307
0.017498004
-0.024796004
0.016485856
-0.025066092
-0.010666128
0.023796279
-0.079221881
-0.029431340
0.019286658
-0.011411272
0.004561471
0.047247120
0.007574883
-0.017637258
0.046272874
0.030975970
-0.012955651
-0.079496618
-0.052853994
0.068487794
-0.010858970
-0.012307319
-0.000886571
-0.002249530
-0.040223405
0.020170225
-0.002689354
-0.023870564
-0.017172197
0.003336394
-0.006874823
0.021207317
0.053422886
0.024180879
0.001620147
-0.027538683
0.016434954
-0.010476329
0.044037430
-0.009148522
0.008729258
-0.012288174
0.050321790
-0.013492985
0.047780291
-0.006557725
0.017515310
0.014930116
0.058205886
0.011313993
-0.043443193
-0.039861156
0.006898220
0.037036734
0.035400034
-0.028133921
0.003797849
-0.005049038
0.040074122
-0.042838968
-0.028053037
0.000687507
-0.027444232
-0.007500389
-0.047849036
0.046201809
-0.044270463
0.051809092
0.068956953
-0.042175940
-0.008401743
0.034207331
0.009844548
0.014411427
0.021376064
0.001657558
0.009482395
0.026565628
-0.020464034
0.032410055
0.021536857
0.042403180
-0.026672205
0.018767881
0.000234167
0.033347915
0.045973560
0.037591448
0.023280581
0.193573357
-0.017833854
0.003482156
-0.016509719
0.005327450
0.010738672
-0.001746002
0.013481042
0.000654622
0.033563270
-0.008918488
0.021184663
-0.028038249
0.007132358
-0.005022675
-0.027464441
0.042059058
-0.024598278
0.002474621
0.008915975
0.013813878
-0.038110860
0.036905929
0.018133424
0.003168126
0.038979170
0.034290652
-0.012794905
0.002165987
0.006230742
-0.053414029
-0.053262480
-0.057806681
-0.029997527
-0.018383039
0.010085768
0.037077050
-0.032138365
0.009427692
0.000308569
0.014264580
0.007966466
-0.010889161
0.045159749
0.006252256
0.033894062
0.013935488
0.061593013
0.034005279
0.006346147
-0.011765063
-0.014299735
0.057267402
-0.015820349
0.010333396
0.016142989
-0.008932017
0.035910667
-0.028198779
0.009028260
-0.008260200
-0.006353323
-0.019871915
-0.071458247
-0.016205418
0.036455957
0.057096239
-0.011417821
0.015831080
0.017705853
0.043131902
0.004869752
-0.012680866
-0.054463845
0.020312343
0.006787149
-0.008505283
0.004934941
0.011647438
0.003125082
-0.015908856
0.031781954
0.037505837
0.018271611
0.017137137
0.041666801
0.011317328
-0.022254293
0.017760720
0.003391215
-0.006370441
-0.014836535
-0.025425373
0.013879618
-0.015449514
-0.019030723
0.031020007
-0.008168839
-0.009208750
-0.032827439
-0.080140150
0.030991094
-0.001710828
-0.007531588
0.004804695
0.002726277
-0.013030491
0.007638518
-0.016219176
0.005832402
-0.017025421
-0.012818840
-0.009660850
-0.017012020
-0.032903189
0.077397133
0.149855641
0.041678535
0.009352474
-0.001598040
-0.005818784
0.031814754
-0.025017277
0.005638128
0.036634691
-0.000149656
-0.014332446
-0.014740016
0.256453764
-0.004385339
-0.058243387
-0.006598650
0.000058879
-0.032760210
0.014157824
-0.027189493
0.027244740
0.051636272
-0.008053742
-0.003946230
0.008445343
-0.000325786
0.098069176
-0.016748995
0.030385945
-0.061505869
0.008268992
0.038743466
0.050999444
0.003656012
0.044589399
0.026784854
-0.017699947
-0.011615224
-0.050005461
-0.042013916
-0.006999762
0.050276834
0.033998199
0.061462557
-0.040705395
-0.011343925
0.066160234
0.034048821
0.034130383
0.022560340
-0.005888548
0.012673426
-0.051897778
-0.016922576
-0.026536772
-0.021727735
0.013935488
0.009458264
-0.026510249
-0.010902557
-0.015141321
-0.008332058
-0.026978705
0.026529465
0.022907158
0.007376386
-0.027019996
-0.027375442
-0.000185835
0.021316891
0.001450179
-0.020490842
0.047405707
-0.062639210
0.060543722
0.001781088
-0.025886529
-0.009416016
-0.013980388
-0.008436833
0.004051064
0.012574880
-0.013716984
-0.009143780
0.021062535
0.028668200
0.003919749
0.043111762
-0.006616395
-0.014914755
-0.008001074
0.009271132
0.014354485
0.008220976
0.021257799
0.055191575
-0.006546962
0.015088828
-0.033337852
0.004822546
0.024913985
0.023987326
0.044434525
0.001604410
0.003698579
0.009106283
0.009340955
-0.017360955
-0.006930041
-0.034718725
-0.000191119
-0.001449208
0.031651900
0.012389631
0.026151924
-0.055516033
0.040123147
-0.001406751
0.054590851
-0.034583637
0.022686860
-0.039376392
0.005947017
-0.055480527
0.093367040
0.013760844
0.021349912
0.000811247
-0.020642590
-0.002704243
0.184385158
-0.012476161
-0.015698547
-0.043639094
0.055302222
0.032529254
-0.017202872
0.025622064
-0.009055723
0.013425249
-0.027901324
-0.038583499
0.057300434
-0.026372841
-0.031234680
-0.000535303
0.032407756
0.007717000
-0.026607993
0.043125450
0.009493709
0.001762660
-0.000011098
-0.005781791
-0.047726201
-0.009762417
0.015870161
-0.015218630
-0.006823287
-0.051545224
0.042840923
-0.007026410
0.014510545
-0.023435990
0.005525860
-0.013149715
-0.054821835
-0.010356748
-0.032099934
0.097561338
-0.007099105
-0.025023088
0.256425019
-0.016072260
0.033420614
0.051641107
-0.028630788
-0.005553971
-0.011475471
-0.018109103
-0.016468208
-0.044710992
-0.004796989
0.083330568
0.011693287
0.010372095
-0.012489115
0.001696621
-0.033039940
-0.008073897
0.016636426
-0.019097701
0.009180471
0.038650335
-0.066498202
-0.006623285
-0.040177279
-0.010738682
0.039706555
-0.006396608
-0.021837774
-0.027174110
0.008961300
0.029483538
-0.013342144
-0.071980445
0.014662788
0.025634040
0.001966595
-0.009793309
0.005056078
-0.015545277
0.011955596
-0.029240741
0.025010975
-0.012657074
0.007139530
0.000313315
0.026007006
-0.022352107
0.017656321
-0.008911165
0.001316749
0.021962416
-0.028676105
0.001263168
-0.014784425
-0.005407141
-0.042728535
0.015684438
-0.007325324
0.042818499
0.006811437
0.009650911
0.022477710
0.005534597
0.005860082
-0.036456003
0.025452096
-0.007337180
0.017836153
-0.004647132
-0.030304820
0.023030013
-0.046557236
-0.027703108
0.018266043
-0.014478876
-0.029716043
0.049398216
0.002416946
0.010035949
-0.007554917
-0.005338184
0.097291712
-0.009157351
0.012707935
0.000707035
0.009853226
-0.011448111
-0.020020252
-0.010663883
-0.001615201
0.018799046
0.015527455
-0.002921274
0.025517915
0.060942127
0.010424627
0.006795373
-0.073126328
-0.015154848
-0.020150958
-0.016783901
-0.038010255
0.018799046
-0.033044793
-0.002413527
-0.053513352
0.089426211
-0.012098428
0.016068353
-0.005303559
0.021530563
-0.029211504
-0.029252992
0.002760539
0.002586623
0.038196937
0.001054041
0.013955394
0.026108176
-0.014956876
0.005110264
0.004435901
0.005576621
-0.008985946
0.011081206
0.009078466
-0.024296965
0.036993366
-0.018176875
0.004555153
-0.026148570
0.021516951
-0.042760477
-0.008076513
-0.008697126
-0.011518680
0.045873714
0.031560375
0.009591461
0.048095695
-0.000257438
0.026823150
-0.034297136
-0.020677520
0.006495389
-0.024868735
-0.043174480
0.009493158
-0.010245018
-0.059380765
0.026131170
-0.016340208
0.016334342
0.003407186
-0.045625124
0.007043082
-0.004854699
0.013525008
0.017227814
0.002973324
0.054699799
0.032845086
-0.000144460
0.060283979
0.308079347
0.030906493
-0.049358292
0.006831366
0.010164234
0.013832076
-0.002736194
0.005423494
0.021800411
-0.000939682
0.000818791
0.064267828
-0.026957494
0.024545046
0.055742211
0.009922952
0.010257449
0.014146150
-0.012577162
0.004904984
-0.041044531
-0.005397479
-0.005073698
0.001314077
-0.013959894
0.005378886
-0.025418131
0.029252183
0.000106546
0.004687024
-0.087135059
0.018387718
0.010273994
-0.018988113
0.000000000
0.012861664
-0.002796588
0.011641722
0.009972982
-0.002387862
0.015904008
-0.048795464
0.006250126
0.013393063
0.025993774
-0.006590960
-0.007122974
0.010017642
-0.026532215
-0.063158542
-0.047333870
0.013760309
-0.015554942
-0.003292944
0.009749439
-0.004284254
-0.006815061
0.000215162
0.000757135
-0.023761722
-0.009652275
0.004003693
0.010651838
-0.007673254
0.001688504
0.091140744
0.043574679
-0.008983419
-0.012395873
0.007533135
-0.000324507
0.002360675
0.035671878
0.009958857
-0.001661519
-0.001128689
-0.014285362
-0.002682976
-0.001435006
0.013614110
0.001252813
0.001606616
-0.002939839
-0.032433325
0.012283877
-0.004799181
-0.035960183
-0.027406024
0.014659415
0.049446673
0.021578180
0.047060378
0.019559010
0.007406733
0.111532179
-0.006392383
-0.010227185
0.015214712
-0.007693249
-0.001592875
-0.004060070
-0.001110937
-0.011380559
0.016961024
-0.001609247
0.038882998
0.014329647
0.010987906
-0.023099772
-0.036299061
0.011554595
0.010987444
0.002945784
-0.013236719
0.008293491
-0.007921426
0.002232160
-0.010012305
-0.011684412
0.007125982
0.000553553
0.042996499
-0.018141167
-0.011217858
0.047438064
0.018775697
-0.008260546
0.028745573
-0.002287289
0.006246717
0.047473748
-0.005419476
0.022178706
-0.000418539
0.052196141
0.004708162
-0.009644401
-0.014186634
0.001471162
-0.016295086
-0.068303022
0.010209359
0.028862817
-0.004967247
-0.005671747
0.000781943
-0.026526648
0.038475447
0.005770864
0.048598707
-0.005236653
-0.027129420
0.067340050
-0.058270814
0.007992638
-0.010065568
0.026833849
-0.001578120
0.009579997
0.021548424
0.014964870
-0.010651640
-0.009114215
-0.018723517
-0.007420658
-0.027815462
0.002895187
-0.054839641
0.023362803
0.015213471
-0.001477323
-0.000690945
0.000189476
-0.032964879
0.059194917
0.019434494
-0.006616310
0.002064750
0.029123629
0.019324519
0.077640087
-0.006238934
0.025980090
-0.001124444
-0.009000360
-0.000968530
-0.003658959
0.049295411
0.007670026
0.031969104
-0.009590516
0.012753112
0.010330129
0.009188115
0.037460384
0.013540931
0.008339681
-0.007958584
0.012655567
0.010380994
-0.016547837
-0.006135843
0.020465672
0.027766430
-0.008185785
0.009665675
0.020018252
0.019713214
-0.003635764
0.013067144
-0.032419208
-0.014841849
0.012535448
0.002278810
0.019402096
-0.007400216
0.020452211
0.012475387
0.012197551
0.018623162
0.001117965
0.005457471
0.043155064
0.044114742
0.023259440
-0.011322326
-0.010614290
0.002379293
0.034148598
0.004367445
-0.011303116
-0.007438717
-0.013778531
-0.009289604
-0.009298445
0.028376115
0.014444811
0.002334237
-0.036564036
0.006796609
-0.010353019
-0.008537162
-0.009608293
0.001377006
0.008256478
-0.077408137
0.018534715
0.000219799
0.040103868
0.049359937
-0.023787932
-0.002588558
0.006866432
0.069644464
0.018188040
0.042581326
0.037885048
0.012691562
0.003986454
-0.038587987
-0.001226221
-0.001053511
-0.026718333
-0.013273252
-0.019466253
-0.007299017
-0.000713758
0.004288163
0.005460896
0.009824800
0.049522904
0.014402815
0.005052414
-0.007898204
-0.027248972
0.023472307
-0.019107315
0.019390561
0.005538928
0.036502914
-0.011260298
0.057563545
-0.024428517
0.003850331
0.025215296
0.007517915
0.003616998
0.007394527
0.033575432
-0.008804070
-0.001324600
-0.013487394
0.035979032
-0.004770189
0.016935605
-0.031227344
0.034521707
0.042363844
0.010825490
-0.000283018
0.047312722
0.055835865
0.008753309
-0.002504812
-0.002678015
0.003791687
-0.017803097
-0.019079310
0.011660897
-0.002101934
0.021874690
-0.024521169
0.005058650
0.027845032
0.005543133
0.004717596
0.007909215
0.014794244
0.006267214
0.037126632
0.015778206
0.012019024
0.004915296
-0.007237851
0.009209220
0.025507664
-0.013658501
-0.009223818
0.024239598
-0.007683833
0.024801123
0.011773877
-0.018307019
0.049903286
-0.001147911
-0.041826333
-0.027295366
0.001625840
0.004231982
-0.007683512
0.021835044
0.037800932
-0.004528571
0.002113465
-0.025436721
0.000709307
0.004031371
-0.005782504
0.590142124
0.015273555
-0.011083110
0.025957306
0.004369250
-0.007704061
-0.005731793
0.006398591
0.005406494
-0.003509464
-0.000708841
0.000961627
-0.027663801
0.026157093
-0.027303063
0.001945916
0.005676362
-0.000482292
0.005668833
0.007435378
0.000233095
0.011096069
-0.014148742
0.006786894
0.023886161
-0.006901403
0.000192306
-0.006572854
-0.023916173
0.012581016
0.024600267
0.010348768
-0.011000172
-0.002580586
-0.006875057
0.003733611
0.023354849
0.028664378
0.034285302
0.019293533
-0.016861215
-0.010430051
0.007530541
0.005961038
-0.010339602
0.022275933
0.054164529
0.042405322
0.035031654
-0.018358320
-0.016038494
0.039515114
-0.005308610
-0.010510644
0.053629193
-0.004433568
0.023854054
0.000000000
0.000293597
0.032554873
0.024258818
-0.003990959
-0.007701735
0.015620371
-0.003359177
0.013593731
-0.001197888
-0.023557560
-0.023289975
-0.030926963
-0.006503691
-0.021631411
0.004930438
0.009580569
0.007425780
-0.000301700
-0.005214457
-0.003699547
0.009015395
0.010204366
0.021666906
-0.010430891
-0.007399821
-0.012767051
0.022647672
-0.004470664
-0.013760478
0.009075299
0.023101664
0.006881652
-0.019828543
0.042677554
-0.003556854
0.018439057
0.007968841
-0.006164034
-0.001272506
-0.006360375
0.009631713
-0.007784117
-0.023417644
-0.009772208
-0.010808267
0.094206540
-0.023071795
-0.013501695
0.038711115
0.010145827
0.007522268
-0.003987639
-0.025381165
-0.026370419
-0.013474060
0.075562470
-0.003557385
0.005571774
-0.002949780
0.012281713
0.006555055
0.006621499
-0.003539238
-0.004367218
0.042696671
0.012965228
0.008291715
0.050682885
0.030859017
0.068353019
0.012499442
0.012092257
-0.000204285
0.033433738
0.024112310
0.038963704
0.014777907
0.047044343
0.005529036
0.000269377
0.011536652
-0.015531260
-0.004965515
0.000723801
-0.016323080
-0.001470625
0.061166876
-0.001055920
0.018627174
0.062095920
0.008448196
0.010697840
0.053548409
0.009471739
-0.001737942
-0.006915564
0.025888736
0.021649683
-0.004625996
-0.005888814
0.002548563
-0.020315574
-0.021490524
-0.010407585
0.023116442
0.027754259
0.055649854
0.006145723
-0.001234943
0.009169107
0.019648080
0.017742566
-0.000034210
-0.008428599
-0.006432152
-0.013423606
-0.018754331
-0.003567155
-0.023285078
-0.004525595
-0.036009824
0.011843446
0.008785028
0.090341279
-0.008327383
-0.004691728
0.008612068
0.051181230
-0.002083910
-0.010585110
-0.012194318
0.002054054
-0.020044988
0.013576309
-0.014318367
0.007238860
0.006569230
-0.012600485
-0.011422161
0.003839062
-0.018025871
0.033408715
-0.015205189
-0.005080486
0.024135773
-0.000633152
-0.017237179
0.002007288
0.021234881
-0.008467659
-0.009040220
-0.015486126
0.004306797
-0.025320177
-0.010947647
0.023592237
-0.002424043
0.006181267
-0.007289959
0.019476663
0.009605666
0.014925481
